#include "dsplib/include/DSPLib.h"
volatile uint32_t cycleCount, cc2, cc3,cc1;
DSPLIB_DATA(in,4)
_q15 in[32];

DSPLIB_DATA(we,4)
_q15 we[32];

DSPLIB_DATA(res,4)
_q15 res;


DSPLIB_DATA(inputMatrixColumn,MSP_ALIGN_CMPLX_FFT_Q15(256))
_q15 inputMatrixColumn[256] = {0};//{1684,1566,1090,1865,2317,815,3085,5777,0,428,7620,6446,0,6029,9002,3640,0,0,2145,0,0,759,3828,0,0,2207,392,0,734,2575,0,0,757,1540,718,0,1982,1453,0,0,0,0,1955,3567,0,0,4858,4388,10305,12467,13009,9104,6056,7891,8147,6021,2556,2749,2447,3122,2909,2745,2556,3032,3422,4303,4389,5571,2104,1772,1554,6611,809,249,4152,7550,472,2218,8611,7901,5815,7834,7873,4023,4646,6666,5130,2864,0,0,2631,583,40,2052,3067,1072,0,673,2969,3171,0,71,5168,1460,0,4029,5451,0,916,4848,1564,0,607,241,1058,0,0,0,933,1430,1447,3456,1073,6728,3246,4271,3040,6813};


DSPLIB_DATA(circularMatrixColumn,MSP_ALIGN_CMPLX_FFT_Q15(256))
_q15 circularMatrixColumn[256] = {0};//{-481,-6677,7618,4423,10707,9610,2747,-7194,2386,-2903,-1650,767,-1088,1478,-1780,2358,-9931,-2158,1185,-8885,-9200,-1714,-5722,-6421,377,-4595,-3299,3569,2908,1917,-1249,-3697,-5849,1547,-585,-8200,3154,288,-4801,-8855,1790,-5158,5406,6972,-6079,2491,9196,3460,1656,1966,6235,2916,-5192,-6728,-3263,94,-319,6690,2028,-4509,-2314,-7968,6110,1457,979,6882,5889,3556,-40,-4233,582,5080,-3114,-1233,-5180,-7591,2839,-983,3761,5575,6549,-950,-1083,1551,3486,-1365,-5255,8771,2136,-634,-6299,-8185,-4398,-1786,-1368,-2994,7849,388,-77,7212,1118,-245,1620,6632,2098,4185,9156,-10221,-7484,-1684,-1528,-940,3237,3315,-711,6629,11699,536,-2905,-2424,-8120,-1334,-7746,-4996,-8144,-6865,4279,-435};



//_iq31 resultMatrixColumn[576];




//float in[25], we[25], res;

//#pragma PERSISTENT(test1)
//int test1[1];

#pragma PERSISTENT(n_weight0_1)
const int16_t n_weight0_1[INPUT][LAYER1][LENGTH_KERNEL][LENGTH_KERNEL]= {
                                                                         {
                                                                             {
                                                                                 {427,-52,-357,-368,-526,},
                                                                                 {435,500,674,497,264,},
                                                                                 {-88,274,562,352,395,},
                                                                                 {-439,-101,-61,258,334,},
                                                                                 {-473,-528,-491,-579,-208,},
                                                                             },
                                                                             {
                                                                                 {34,517,439,-439,-66,},
                                                                                 {243,754,202,-669,-626,},
                                                                                 {245,791,-200,-236,-475,},
                                                                                 {490,66,158,-172,-325,},
                                                                                 {309,-24,37,-158,-132,},
                                                                             },
                                                                             {
                                                                                 {-540,-417,-68,-149,435,},
                                                                                 {19,-27,150,677,393,},
                                                                                 {-128,564,767,655,-161,},
                                                                                 {187,270,40,-405,-455,},
                                                                                 {408,-67,-255,-432,-169,},
                                                                             },
                                                                             {
                                                                                 {235,-63,-86,-294,389,},
                                                                                 {-200,-434,-316,-98,339,},
                                                                                 {-347,-509,-99,-21,347,},
                                                                                 {-291,-506,-51,234,-48,},
                                                                                 {-429,-116,14,21,-62,},
                                                                             },
                                                                             {
                                                                                 {303,135,442,288,-326,},
                                                                                 {-288,566,291,86,-210,},
                                                                                 {-86,506,506,-377,-201,},
                                                                                 {-43,475,512,-184,-224,},
                                                                                 {-342,335,819,164,379,},
                                                                             },
                                                                             {
                                                                                 {-366,-525,-134,494,610,},
                                                                                 {-198,126,484,430,386,},
                                                                                 {305,343,33,-480,-472,},
                                                                                 {-218,-165,-442,-96,-86,},
                                                                                 {-259,-52,9,180,215,},
                                                                             },
                                                                         },
                                                                     };


#pragma PERSISTENT(n_weight2_3)
const int16_t n_weight2_3[LAYER2][LAYER3][LENGTH_KERNEL][LENGTH_KERNEL]= {
                                                                          {
                                                                              {
                                                                                  {171,-2099,-569,-1963,-724,},
                                                                                  {-238,-1444,-1817,-2876,1092,},
                                                                                  {-3835,-2715,-4429,-1228,347,},
                                                                                  {-1168,-500,1498,4006,3838,},
                                                                                  {2609,-151,-997,2983,-1552,},
                                                                              },
                                                                              {
                                                                                  {-914,3571,-363,1726,-272,},
                                                                                  {-1386,-610,681,4090,-809,},
                                                                                  {-1496,-495,625,1822,256,},
                                                                                  {2331,1536,-2053,-2267,-4838,},
                                                                                  {-2437,-910,-4641,-2940,-1003,},
                                                                              },
                                                                              {
                                                                                  {-2740,-4963,127,-1172,859,},
                                                                                  {-6120,-1470,587,3154,3613,},
                                                                                  {-3213,1071,2651,1530,813,},
                                                                                  {-406,5135,4881,2192,-267,},
                                                                                  {-5,4268,4092,-2615,-1350,},
                                                                              },
                                                                              {
                                                                                  {1990,2160,-1875,1598,734,},
                                                                                  {635,1348,3614,3726,4003,},
                                                                                  {3275,5629,8509,7588,5369,},
                                                                                  {3255,7854,6598,6008,5230,},
                                                                                  {-227,2972,675,1851,-1061,},
                                                                              },
                                                                              {
                                                                                  {369,829,-1682,-1462,-2934,},
                                                                                  {-1837,799,-878,-201,-270,},
                                                                                  {1298,1837,423,1094,-1625,},
                                                                                  {-232,273,4285,4265,586,},
                                                                                  {-1770,-734,-878,-775,-742,},
                                                                              },
                                                                              {
                                                                                  {-1672,-1639,-4633,-491,-2544,},
                                                                                  {982,1390,3146,2320,4606,},
                                                                                  {4727,6343,5742,2830,502,},
                                                                                  {7391,3496,5876,2030,-2722,},
                                                                                  {3585,2519,-502,-670,-2376,},
                                                                              },
                                                                              {
                                                                                  {-550,-1729,-1331,4295,2319,},
                                                                                  {4565,36,1445,-2812,-532,},
                                                                                  {3950,267,-2624,-2079,1335,},
                                                                                  {6227,1254,-624,-2973,-550,},
                                                                                  {-465,2402,-2099,-1517,2238,},
                                                                              },
                                                                              {
                                                                                  {-2784,-560,-2232,-3957,-1351,},
                                                                                  {1318,-2740,-1352,-1010,-2609,},
                                                                                  {2286,-2073,-299,-2845,-1421,},
                                                                                  {-3079,-2127,-140,784,-628,},
                                                                                  {-4631,-3048,-3120,-3908,2217,},
                                                                              },
                                                                              {
                                                                                  {-1957,1564,-1696,412,1176,},
                                                                                  {3178,1737,3750,3300,1200,},
                                                                                  {590,4338,7389,2010,-878,},
                                                                                  {737,3466,8441,8662,4322,},
                                                                                  {2610,1547,3036,5750,4363,},
                                                                              },
                                                                              {
                                                                                  {-522,3056,2311,2224,345,},
                                                                                  {1872,-288,1928,1204,-434,},
                                                                                  {2568,2772,-1286,-3261,-1422,},
                                                                                  {2414,-715,-937,-2834,-155,},
                                                                                  {-1289,487,-392,-1346,1765,},
                                                                              },
                                                                              {
                                                                                  {1794,-1872,-1839,441,-3295,},
                                                                                  {164,1876,-1009,888,1147,},
                                                                                  {882,1846,1812,4732,935,},
                                                                                  {-1096,-1459,1613,1928,-236,},
                                                                                  {1472,1605,911,2887,2595,},
                                                                              },
                                                                              {
                                                                                  {-11,1240,-189,169,-1823,},
                                                                                  {1877,1031,-2439,2403,-1360,},
                                                                                  {-1964,-763,662,184,-1457,},
                                                                                  {-468,-2914,54,299,879,},
                                                                                  {-2246,1799,3537,-504,1991,},
                                                                              },
                                                                              {
                                                                                  {-4020,-3220,-1856,-585,-1567,},
                                                                                  {-3102,-6226,-5186,-316,-145,},
                                                                                  {-4499,-2014,399,541,-1804,},
                                                                                  {-2615,42,3347,896,-1644,},
                                                                                  {909,3289,3851,2960,-1216,},
                                                                              },
                                                                              {
                                                                                  {1280,-851,1009,452,2189,},
                                                                                  {1345,4896,101,-762,-4013,},
                                                                                  {4346,5121,6967,-702,-1937,},
                                                                                  {950,3273,2954,-239,-1192,},
                                                                                  {623,-103,1238,-1609,-2372,},
                                                                              },
                                                                              {
                                                                                  {680,1391,2973,-584,-1330,},
                                                                                  {-224,-825,440,1201,3089,},
                                                                                  {-20,-585,236,1771,1304,},
                                                                                  {-3619,-998,2100,2977,-948,},
                                                                                  {-212,1198,-2116,-3011,169,},
                                                                              },
                                                                              {
                                                                                  {-3432,-402,-966,-2320,2666,},
                                                                                  {-757,-707,2709,4796,3453,},
                                                                                  {-1386,286,-1720,2186,1077,},
                                                                                  {-1519,-2371,2741,-1462,-1821,},
                                                                                  {1750,-2140,74,2208,-1057,},
                                                                              },
                                                                          },
                                                                          {
                                                                              {
                                                                                  {2175,-751,-892,-265,4929,},
                                                                                  {-777,-488,1983,1319,3599,},
                                                                                  {1701,247,4571,3210,-777,},
                                                                                  {3765,3341,5417,-3361,338,},
                                                                                  {-1149,2015,-1891,2169,-125,},
                                                                              },
                                                                              {
                                                                                  {-1222,1832,773,926,-436,},
                                                                                  {-2271,-2681,2979,1782,1045,},
                                                                                  {-748,-3535,5489,-417,1437,},
                                                                                  {-846,-2268,-1579,-2566,3343,},
                                                                                  {-1417,-4707,-3771,3024,4736,},
                                                                              },
                                                                              {
                                                                                  {-2191,2576,1858,4846,1656,},
                                                                                  {-500,5285,1690,2364,3087,},
                                                                                  {1337,5607,-453,-84,2698,},
                                                                                  {3662,970,-705,260,-3403,},
                                                                                  {-2638,-2767,-1622,339,-2934,},
                                                                              },
                                                                              {
                                                                                  {476,-419,-1037,-1097,-96,},
                                                                                  {122,-2914,-3726,-2351,-1017,},
                                                                                  {6,-314,1048,2940,1166,},
                                                                                  {-998,779,-1579,-763,-1613,},
                                                                                  {37,-2502,-2876,-2960,-853,},
                                                                              },
                                                                              {
                                                                                  {688,-2723,2606,1419,118,},
                                                                                  {-2449,-1534,3817,3184,-1164,},
                                                                                  {-1628,1947,2824,4353,144,},
                                                                                  {2046,1911,170,35,134,},
                                                                                  {4522,1888,3014,-626,705,},
                                                                              },
                                                                              {
                                                                                  {-791,207,-142,-2158,2203,},
                                                                                  {1729,25,236,3298,1500,},
                                                                                  {2322,1950,2107,4085,1009,},
                                                                                  {-3313,-2572,-2260,-2260,-2100,},
                                                                                  {-4529,-4324,-1099,-5813,-2998,},
                                                                              },
                                                                              {
                                                                                  {-720,2588,2149,1621,3293,},
                                                                                  {-4039,-4092,-4107,2906,3963,},
                                                                                  {-1361,-5699,-7030,3020,1900,},
                                                                                  {-4383,-5155,-3322,2337,3656,},
                                                                                  {-198,-4869,2508,4197,3690,},
                                                                              },
                                                                              {
                                                                                  {4024,5146,434,2207,852,},
                                                                                  {3570,3433,1359,-5238,1916,},
                                                                                  {2369,5043,-3867,-5743,-2034,},
                                                                                  {3613,2625,-3711,-4009,1971,},
                                                                                  {3008,2120,-2765,3024,2585,},
                                                                              },
                                                                              {
                                                                                  {2194,765,318,502,-1106,},
                                                                                  {861,2495,3321,-2203,-1526,},
                                                                                  {986,64,3621,-16,2312,},
                                                                                  {-814,-2577,-1314,2526,677,},
                                                                                  {-1440,-5110,-3473,-2414,-1622,},
                                                                              },
                                                                              {
                                                                                  {-1730,-2401,-604,2378,4032,},
                                                                                  {-2664,-494,2924,3328,5309,},
                                                                                  {-2222,-2103,-144,2159,7804,},
                                                                                  {-5449,-1879,2899,6210,1989,},
                                                                                  {961,-1229,-104,-500,-1104,},
                                                                              },
                                                                              {
                                                                                  {2168,894,1112,-1942,1609,},
                                                                                  {-2422,-4883,-570,-1200,-3921,},
                                                                                  {-2017,-2263,-3127,-2156,-1646,},
                                                                                  {209,-1105,-68,3338,146,},
                                                                                  {1701,5235,1014,-163,1587,},
                                                                              },
                                                                              {
                                                                                  {-822,42,3978,-919,-1438,},
                                                                                  {1112,1349,-1392,-1321,-600,},
                                                                                  {-2635,-682,-1797,-1050,2882,},
                                                                                  {-2761,-2329,-2444,465,3196,},
                                                                                  {-2343,2334,2146,-3984,154,},
                                                                              },
                                                                              {
                                                                                  {553,4758,537,2182,-315,},
                                                                                  {2421,7337,7191,5282,1133,},
                                                                                  {3602,6200,4419,-485,2867,},
                                                                                  {3374,3590,-1007,-1118,-1607,},
                                                                                  {1681,574,-1027,-979,1390,},
                                                                              },
                                                                              {
                                                                                  {-722,-518,-2959,-3212,-2667,},
                                                                                  {435,-4264,410,-2853,-2050,},
                                                                                  {2659,-474,-2025,1051,1815,},
                                                                                  {344,2353,1518,4463,2758,},
                                                                                  {317,817,2868,5470,2497,},
                                                                              },
                                                                              {
                                                                                  {-1162,-2455,-3940,-2712,-212,},
                                                                                  {-2877,248,3316,1865,716,},
                                                                                  {765,1457,4763,3595,207,},
                                                                                  {2349,6165,4065,-952,-1307,},
                                                                                  {2940,6716,-1770,-1851,-2172,},
                                                                              },
                                                                              {
                                                                                  {429,3725,3185,3233,-212,},
                                                                                  {-996,774,-1246,-1798,-2075,},
                                                                                  {4368,-1762,1352,1421,2704,},
                                                                                  {5157,-532,2405,-469,87,},
                                                                                  {2488,-852,2852,771,3130,},
                                                                              },
                                                                          },
                                                                          {
                                                                              {
                                                                                  {1021,2706,4456,5942,2765,},
                                                                                  {3400,-70,5369,5662,3285,},
                                                                                  {5086,72,1005,4012,-780,},
                                                                                  {1510,-2906,-3150,1927,-837,},
                                                                                  {-4734,-383,391,3395,711,},
                                                                              },
                                                                              {
                                                                                  {2284,-870,-1074,-1635,-2946,},
                                                                                  {-515,1559,-898,-902,-2289,},
                                                                                  {-2219,648,1646,-1756,-1369,},
                                                                                  {925,55,-357,3613,4186,},
                                                                                  {-4827,529,2520,4533,2124,},
                                                                              },
                                                                              {
                                                                                  {996,698,4581,1246,-543,},
                                                                                  {1997,1420,5458,3321,-2248,},
                                                                                  {-1672,353,1183,1601,-2949,},
                                                                                  {-5652,-637,-2262,-2025,-3376,},
                                                                                  {1039,-535,-3142,-1000,937,},
                                                                              },
                                                                              {
                                                                                  {-1682,1374,-181,1626,-2385,},
                                                                                  {1821,-1465,-2146,2746,-66,},
                                                                                  {3608,-834,33,423,1211,},
                                                                                  {140,434,2536,2789,2379,},
                                                                                  {-2307,-1198,2415,831,1832,},
                                                                              },
                                                                              {
                                                                                  {-1349,1183,-1681,-1407,4,},
                                                                                  {-1826,2762,1657,1414,1879,},
                                                                                  {3850,5966,2317,585,1866,},
                                                                                  {3666,-2092,47,-17,-526,},
                                                                                  {175,-1703,-3411,-2414,-862,},
                                                                              },
                                                                              {
                                                                                  {1933,864,555,-419,112,},
                                                                                  {-2456,-1671,141,6207,5211,},
                                                                                  {997,1775,7040,4180,2623,},
                                                                                  {-819,1199,3257,1810,-1028,},
                                                                                  {122,-810,2686,2869,-558,},
                                                                              },
                                                                              {
                                                                                  {-2056,-309,1023,42,-3220,},
                                                                                  {-111,-2310,-1717,-2139,1154,},
                                                                                  {-1170,-3168,-462,2274,4106,},
                                                                                  {2712,4130,3878,4339,3587,},
                                                                                  {341,3389,1729,5460,3972,},
                                                                              },
                                                                              {
                                                                                  {-850,881,3061,1086,48,},
                                                                                  {613,-730,-1676,1555,50,},
                                                                                  {2643,1946,-91,259,394,},
                                                                                  {469,2774,1756,83,604,},
                                                                                  {-381,-3945,-950,-2030,-988,},
                                                                              },
                                                                              {
                                                                                  {1940,-2946,-887,1188,-1591,},
                                                                                  {1903,-1777,-2118,-2443,-1060,},
                                                                                  {375,397,-280,-3271,384,},
                                                                                  {-1116,950,1985,373,881,},
                                                                                  {40,3094,675,1053,-652,},
                                                                              },
                                                                              {
                                                                                  {2270,3040,2389,-6090,-6659,},
                                                                                  {3383,4001,2253,-4173,-2010,},
                                                                                  {2324,157,3166,1010,-2530,},
                                                                                  {139,1464,-703,1560,1212,},
                                                                                  {-346,-419,3931,2597,2356,},
                                                                              },
                                                                              {
                                                                                  {3048,263,-1288,35,-999,},
                                                                                  {-949,448,1469,-3262,-2096,},
                                                                                  {3463,2797,2618,4572,4133,},
                                                                                  {3260,4529,-2045,147,1244,},
                                                                                  {599,-1601,-1895,-3775,-2533,},
                                                                              },
                                                                              {
                                                                                  {2524,998,1634,-1320,-2437,},
                                                                                  {3125,-2007,-2365,231,1033,},
                                                                                  {-330,-2098,915,-2500,-1034,},
                                                                                  {-2903,-2700,651,-233,1208,},
                                                                                  {4237,3550,4000,-1081,1274,},
                                                                              },
                                                                              {
                                                                                  {-3815,-1313,-325,940,1909,},
                                                                                  {-3640,-499,-638,-727,-402,},
                                                                                  {-1036,-3809,-141,-2341,1017,},
                                                                                  {-5349,-5021,1570,794,-1596,},
                                                                                  {-5540,-2662,-1197,596,503,},
                                                                              },
                                                                              {
                                                                                  {3851,4801,5995,1135,-1749,},
                                                                                  {1356,-1235,-1329,-3253,-970,},
                                                                                  {-995,683,-3343,-5716,88,},
                                                                                  {-596,-1348,-1648,-891,24,},
                                                                                  {872,5149,2113,3607,-988,},
                                                                              },
                                                                              {
                                                                                  {1666,-1164,-2830,-3354,-2154,},
                                                                                  {2715,-2184,-2245,528,300,},
                                                                                  {10,3593,2742,3940,-1137,},
                                                                                  {5099,4180,4996,-1500,-2651,},
                                                                                  {4059,1595,714,452,-701,},
                                                                              },
                                                                              {
                                                                                  {-503,-944,-856,-803,-292,},
                                                                                  {-2489,-540,568,5531,3920,},
                                                                                  {-1270,-2868,-1553,1988,-2165,},
                                                                                  {-3100,-1595,-3668,-4337,-3622,},
                                                                                  {-4058,-4699,-5291,-5155,-2417,},
                                                                              },
                                                                          },
                                                                          {
                                                                              {
                                                                                  {-2212,2135,0,-113,423,},
                                                                                  {-1880,1998,3009,-2629,-3342,},
                                                                                  {88,3000,-1270,-2424,-1906,},
                                                                                  {-707,515,-2717,-389,1695,},
                                                                                  {2797,1297,151,-2186,-2010,},
                                                                              },
                                                                              {
                                                                                  {-2667,-324,-2484,-2349,953,},
                                                                                  {1643,-156,-1916,-3565,-1797,},
                                                                                  {2322,492,-2458,1753,-355,},
                                                                                  {2717,1148,789,985,-1215,},
                                                                                  {3248,1654,-1037,-1871,-3224,},
                                                                              },
                                                                              {
                                                                                  {2204,1759,1399,-1661,-3521,},
                                                                                  {2574,-247,-4301,-1162,-858,},
                                                                                  {-145,-3406,-6001,-3780,-242,},
                                                                                  {-1797,-1462,-5454,30,-242,},
                                                                                  {-2869,-1339,-3138,-3561,-330,},
                                                                              },
                                                                              {
                                                                                  {2912,430,839,1187,-1870,},
                                                                                  {1662,-826,-3635,-3646,-679,},
                                                                                  {-1261,-1733,-3113,-4102,-4480,},
                                                                                  {3010,713,1429,757,-2248,},
                                                                                  {2271,1202,3913,1133,648,},
                                                                              },
                                                                              {
                                                                                  {2344,787,-4290,645,-110,},
                                                                                  {158,-3396,-1942,572,1217,},
                                                                                  {-2882,-4498,-1587,-795,-2567,},
                                                                                  {-913,12,-1756,726,-3187,},
                                                                                  {1947,-528,-169,-979,995,},
                                                                              },
                                                                              {
                                                                                  {1764,940,1534,-2167,-1468,},
                                                                                  {-482,2104,-4351,-2427,-968,},
                                                                                  {1563,832,-4262,-2203,2551,},
                                                                                  {-1268,-2730,-811,3549,1848,},
                                                                                  {-2885,1283,1125,3152,2195,},
                                                                              },
                                                                              {
                                                                                  {3064,-999,2559,-2338,-3069,},
                                                                                  {1046,153,-1001,1132,-3225,},
                                                                                  {-1402,1,-1057,772,206,},
                                                                                  {-5212,-3830,-1658,-1146,-2794,},
                                                                                  {-2047,-2315,-2799,-612,-2116,},
                                                                              },
                                                                              {
                                                                                  {901,194,200,4105,2634,},
                                                                                  {1162,776,290,2932,3687,},
                                                                                  {1645,3088,913,2365,3462,},
                                                                                  {-370,889,4421,1156,-530,},
                                                                                  {135,2914,4223,1285,832,},
                                                                              },
                                                                              {
                                                                                  {-3338,2873,1852,2999,1522,},
                                                                                  {2694,-225,-801,-2018,3507,},
                                                                                  {2008,3598,-3782,-4985,917,},
                                                                                  {-126,2834,-779,-2765,-155,},
                                                                                  {1247,3744,2365,2875,609,},
                                                                              },
                                                                              {
                                                                                  {-679,-1335,-4370,-3783,20,},
                                                                                  {1379,-3267,-166,1324,103,},
                                                                                  {-617,-1194,1080,-205,-509,},
                                                                                  {184,-551,4230,194,366,},
                                                                                  {-1249,-645,4077,4509,413,},
                                                                              },
                                                                              {
                                                                                  {4097,1932,2164,3312,753,},
                                                                                  {1074,-726,2453,-3285,-10,},
                                                                                  {-1407,-2420,573,-3188,-2920,},
                                                                                  {1819,3529,-690,-836,-4556,},
                                                                                  {-282,3117,1337,-974,-3059,},
                                                                              },
                                                                              {
                                                                                  {1521,-884,150,-972,1142,},
                                                                                  {-2629,-200,-1096,869,766,},
                                                                                  {-1523,426,2809,2162,506,},
                                                                                  {-46,55,-2362,2527,305,},
                                                                                  {1924,205,1398,-2177,903,},
                                                                              },
                                                                              {
                                                                                  {2084,-700,-1082,898,337,},
                                                                                  {1136,3113,918,-3455,-136,},
                                                                                  {861,-1096,-1899,-66,-890,},
                                                                                  {1303,-601,-2953,-150,3748,},
                                                                                  {4685,347,-3593,297,-1885,},
                                                                              },
                                                                              {
                                                                                  {-2071,1716,5654,3776,1796,},
                                                                                  {-3128,-2090,-1466,-1447,4019,},
                                                                                  {-690,-3293,-6020,-6033,-657,},
                                                                                  {2097,-140,-693,-804,262,},
                                                                                  {-2341,1804,-1541,1920,-1300,},
                                                                              },
                                                                              {
                                                                                  {-2791,-45,261,-1596,3349,},
                                                                                  {-848,-1705,-1083,-1039,-1307,},
                                                                                  {-96,-1460,682,-259,-2513,},
                                                                                  {-537,2427,1755,-1217,2493,},
                                                                                  {-2699,912,4702,5083,2407,},
                                                                              },
                                                                              {
                                                                                  {3435,-2426,678,-4268,-2814,},
                                                                                  {1277,-2502,-577,455,-4010,},
                                                                                  {4037,1511,-213,-1028,1535,},
                                                                                  {2195,4136,-1987,-1893,402,},
                                                                                  {-2124,4076,298,-1263,-1126,},
                                                                              },
                                                                          },
                                                                          {
                                                                              {
                                                                                  {2623,1165,-35,-1500,1103,},
                                                                                  {3269,-1123,3659,755,-2910,},
                                                                                  {2821,-278,4581,-1605,-426,},
                                                                                  {3148,3059,2306,-1741,-3859,},
                                                                                  {-449,1059,-713,627,-1742,},
                                                                              },
                                                                              {
                                                                                  {-2622,-1488,4691,-341,1427,},
                                                                                  {1400,1145,277,1248,2352,},
                                                                                  {-1504,2692,-198,-1774,-626,},
                                                                                  {2111,-780,862,27,3404,},
                                                                                  {-1985,-3836,-940,370,543,},
                                                                              },
                                                                              {
                                                                                  {1637,-1556,-3611,-2841,-1056,},
                                                                                  {-1016,1804,-1792,204,-663,},
                                                                                  {1753,3308,2108,-1372,-630,},
                                                                                  {3071,-764,-2199,-2313,-3847,},
                                                                                  {1961,-1703,107,-795,-1485,},
                                                                              },
                                                                              {
                                                                                  {1383,3337,1562,-2420,-2606,},
                                                                                  {-1493,1833,-837,-2930,-1280,},
                                                                                  {461,987,1785,-2833,-293,},
                                                                                  {2811,1929,-1069,857,117,},
                                                                                  {-570,-573,-1264,-1127,401,},
                                                                              },
                                                                              {
                                                                                  {-1725,-1483,-182,-1655,1294,},
                                                                                  {-133,-856,2934,588,384,},
                                                                                  {-768,270,1157,2207,-3729,},
                                                                                  {1403,2311,1864,47,-1345,},
                                                                                  {-1910,98,-377,-1767,-864,},
                                                                              },
                                                                              {
                                                                                  {1991,-1389,-1085,-1907,1546,},
                                                                                  {4097,3533,933,-454,-980,},
                                                                                  {4444,-1068,-1292,-4450,-4635,},
                                                                                  {868,-3804,-5178,-4519,-2657,},
                                                                                  {-2438,-5803,-4843,-2988,-1375,},
                                                                              },
                                                                              {
                                                                                  {3587,328,-642,128,1389,},
                                                                                  {1494,800,-3377,-179,4203,},
                                                                                  {-2153,-3653,-5552,-1498,1525,},
                                                                                  {-2070,-2582,-765,1015,-810,},
                                                                                  {419,1359,1158,478,-2294,},
                                                                              },
                                                                              {
                                                                                  {637,3185,-418,1841,1899,},
                                                                                  {319,2125,114,-1101,1674,},
                                                                                  {962,2213,-2473,-4198,-1632,},
                                                                                  {476,-25,1136,-852,4244,},
                                                                                  {-709,-1723,585,1068,1491,},
                                                                              },
                                                                              {
                                                                                  {2813,-2536,-1322,-3372,1038,},
                                                                                  {806,1694,2177,-3557,-1256,},
                                                                                  {726,912,1033,-1220,-1596,},
                                                                                  {-265,533,-1502,1420,-3294,},
                                                                                  {-1873,-6077,-5989,-1842,-1419,},
                                                                              },
                                                                              {
                                                                                  {3038,2899,-1094,1779,6513,},
                                                                                  {-89,-228,-1073,4457,5408,},
                                                                                  {-27,368,-689,-1043,3374,},
                                                                                  {-1563,-372,542,-1401,224,},
                                                                                  {-67,-1659,-1698,-1810,310,},
                                                                              },
                                                                              {
                                                                                  {-1397,164,-2441,1455,-146,},
                                                                                  {-2394,-4770,904,-2045,-3962,},
                                                                                  {-3922,270,608,2189,1942,},
                                                                                  {1872,2347,5795,1954,896,},
                                                                                  {4751,1638,3828,2727,1284,},
                                                                              },
                                                                              {
                                                                                  {-2113,516,-1399,1118,-3180,},
                                                                                  {460,31,600,-2134,1361,},
                                                                                  {-3301,-3606,1837,349,-1069,},
                                                                                  {-3337,391,-1107,-2610,-442,},
                                                                                  {-2305,1618,-1856,-1971,-2547,},
                                                                              },
                                                                              {
                                                                                  {3811,5236,3458,3203,-2830,},
                                                                                  {1290,2070,6537,-33,199,},
                                                                                  {4475,6196,1365,-2246,1169,},
                                                                                  {3430,986,3021,-3183,955,},
                                                                                  {4189,3169,-1294,-2209,-4019,},
                                                                              },
                                                                              {
                                                                                  {-1717,-5791,-1930,-3221,-2986,},
                                                                                  {2065,-146,858,-204,-4589,},
                                                                                  {3484,1879,-471,4357,-1900,},
                                                                                  {2026,552,2374,4282,557,},
                                                                                  {3034,387,-81,-903,3432,},
                                                                              },
                                                                              {
                                                                                  {772,-1120,-1612,745,-2718,},
                                                                                  {826,170,388,1491,-2289,},
                                                                                  {1785,3187,3682,-321,-3350,},
                                                                                  {1685,3055,651,1196,-433,},
                                                                                  {351,2071,1408,-2937,-2199,},
                                                                              },
                                                                              {
                                                                                  {-239,4168,561,824,-237,},
                                                                                  {1568,-689,3718,-914,-2341,},
                                                                                  {1875,-999,4828,1983,-1229,},
                                                                                  {87,-830,1889,604,645,},
                                                                                  {-1047,-1641,208,2022,292,},
                                                                              },
                                                                          },
                                                                          {
                                                                              {
                                                                                  {-90,1476,1275,739,-709,},
                                                                                  {-613,4117,1016,2945,512,},
                                                                                  {335,5128,4934,1240,-1436,},
                                                                                  {-110,1756,-246,584,717,},
                                                                                  {-2055,2346,1352,181,-273,},
                                                                              },
                                                                              {
                                                                                  {-2015,-1081,444,984,-1571,},
                                                                                  {2172,809,1837,1224,-3077,},
                                                                                  {3601,-61,3607,991,825,},
                                                                                  {314,5361,-22,-64,3882,},
                                                                                  {1639,3082,63,4592,2648,},
                                                                              },
                                                                              {
                                                                                  {343,426,4907,3208,-32,},
                                                                                  {-638,3457,2889,3620,-90,},
                                                                                  {4526,4678,3090,879,2034,},
                                                                                  {1641,1262,658,3430,-849,},
                                                                                  {869,4191,2655,-993,-3422,},
                                                                              },
                                                                              {
                                                                                  {1451,-1668,-3107,1805,712,},
                                                                                  {561,-1654,1664,-417,-1915,},
                                                                                  {-1956,1412,807,-1544,410,},
                                                                                  {501,2744,1944,-27,1052,},
                                                                                  {1942,3019,-795,-2140,-919,},
                                                                              },
                                                                              {
                                                                                  {-2949,1943,2310,1189,-2158,},
                                                                                  {-255,1291,-530,2838,3708,},
                                                                                  {747,3318,3575,290,-1384,},
                                                                                  {-905,851,-1419,-380,-2102,},
                                                                                  {792,-426,-1472,1826,-2619,},
                                                                              },
                                                                              {
                                                                                  {-2245,288,-387,828,-2116,},
                                                                                  {-2504,1551,260,2431,-511,},
                                                                                  {2152,183,5120,5634,2769,},
                                                                                  {1626,4031,2686,-904,-5132,},
                                                                                  {-1715,2838,-1093,-570,-3259,},
                                                                              },
                                                                              {
                                                                                  {850,236,2470,3288,3178,},
                                                                                  {-256,2206,3650,2683,1408,},
                                                                                  {1591,-1515,-1963,695,4297,},
                                                                                  {-73,-3163,-134,1537,2611,},
                                                                                  {3576,1055,735,1938,-813,},
                                                                              },
                                                                              {
                                                                                  {73,-1934,727,-3030,1221,},
                                                                                  {1378,-1644,-4563,-2674,-3812,},
                                                                                  {2727,-3618,-3606,-2832,-2583,},
                                                                                  {-2542,-1571,-1606,1148,3132,},
                                                                                  {-1760,-2731,-1302,2741,1074,},
                                                                              },
                                                                              {
                                                                                  {1215,890,-684,-183,-2107,},
                                                                                  {-1955,-871,-501,1880,3027,},
                                                                                  {2576,2088,1821,351,652,},
                                                                                  {1097,-95,2143,917,247,},
                                                                                  {-890,2890,821,391,-664,},
                                                                              },
                                                                              {
                                                                                  {-842,1961,2591,-2936,-3388,},
                                                                                  {1492,4420,766,3827,-2108,},
                                                                                  {3966,2271,707,1098,392,},
                                                                                  {-340,656,2783,2907,-2131,},
                                                                                  {2220,507,-1244,1435,-1660,},
                                                                              },
                                                                              {
                                                                                  {-742,-1427,1628,1515,-2047,},
                                                                                  {-2434,-1671,458,-279,-3060,},
                                                                                  {905,168,3960,1348,2570,},
                                                                                  {890,2730,1677,-282,2548,},
                                                                                  {1552,75,1728,-916,920,},
                                                                              },
                                                                              {
                                                                                  {470,482,2075,-1431,-433,},
                                                                                  {3335,966,-1057,-2444,-1841,},
                                                                                  {-1186,-2056,1111,-869,5,},
                                                                                  {-857,-2890,1715,-668,-2173,},
                                                                                  {-45,-1592,1194,-1063,-684,},
                                                                              },
                                                                              {
                                                                                  {1180,-2260,-46,-3062,1956,},
                                                                                  {2734,-1648,397,-3028,-503,},
                                                                                  {411,-758,-841,-1827,1348,},
                                                                                  {1855,804,-1188,-510,848,},
                                                                                  {1583,3790,3298,-204,638,},
                                                                              },
                                                                              {
                                                                                  {-1953,-2473,4508,1503,3488,},
                                                                                  {3166,-141,-1116,-1380,-189,},
                                                                                  {3994,2701,-987,-3762,-4229,},
                                                                                  {5065,3855,-776,-2403,1269,},
                                                                                  {2884,3013,3450,1749,2287,},
                                                                              },
                                                                              {
                                                                                  {-1662,-482,137,2074,-3348,},
                                                                                  {561,-1809,-1767,-3545,-1340,},
                                                                                  {-1592,-1299,-545,814,-3158,},
                                                                                  {1193,427,-1702,-2321,-3407,},
                                                                                  {6134,3532,1326,189,-1101,},
                                                                              },
                                                                              {
                                                                                  {-2144,-1322,498,3076,-3055,},
                                                                                  {-947,-83,760,1324,5177,},
                                                                                  {-2040,-268,-388,3152,264,},
                                                                                  {-1925,2445,2126,-3494,136,},
                                                                                  {-2489,1529,2729,-10,1830,},
                                                                              },
                                                                          },
                                                                      };

//const float n_weight5_6[LAYER5 * LENGTH_FEATURE5 * LENGTH_FEATURE5][OUTPUT]={0};

const int16_t weight4_5[256]= {-481,-6677,7618,4423,10707,9610,2747,-7194,2386,-2903,-1650,767,-1088,1478,-1780,2358,-9931,-2158,1185,-8885,-9200,-1714,-5722,-6421,377,-4595,-3299,3569,2908,1917,-1249,-3697,-5849,1547,-585,-8200,3154,288,-4801,-8855,1790,-5158,5406,6972,-6079,2491,9196,3460,1656,1966,6235,2916,-5192,-6728,-3263,94,-319,6690,2028,-4509,-2314,-7968,6110,1457,979,6882,5889,3556,-40,-4233,582,5080,-3114,-1233,-5180,-7591,2839,-983,3761,5575,6549,-950,-1083,1551,3486,-1365,-5255,8771,2136,-634,-6299,-8185,-4398,-1786,-1368,-2994,7849,388,-77,7212,1118,-245,1620,6632,2098,4185,9156,-10221,-7484,-1684,-1528,-940,3237,3315,-711,6629,11699,536,-2905,-2424,-8120,-1334,-7746,-4996,-8144,-6865,4279,-435,3427,-948,4546,2695,-1024,11611,-3420,8027,82,1803,-5448,1162,-4540,5349,1652,3513,276,-6691,970,-5788,608,-3872,6465,951,7345,-2357,-2152,113,4688,9283,2122,-5325,-6163,371,172,-2755,4061,-5729,-4275,-3623,-3101,-9792,-4993,1680,-193,3207,-395,-1732,-10128,-6682,-196,-692,1275,3299,-3232,5860,6583,-2769,-4844,4201,-714,1263,-779,4064,11078,-2865,3903,4965,-8011,-13291,-5435,-3490,10463,-2931,1012,-1870,3297,-5998,-2901,1824,3838,-4724,-6193,2508,12098,9006,534,-3700,-2155,-4097,-142,7632,3388,-6164,-500,1497,7168,-5921,-4132,-304,9244,357,-6626,-1237,-4439,-3282,-659,458,-4032,1544,1642,4828,2827,-1442,7332,5569,10140,6671,5173,-5845,-1379,2895,-4906,-7450,-5321,3866,-2816,32,-2653,11128,3679,7015,-2958,2494,6018,-19,-6487,65,-978,-382,4673,-676,1331,3976,1532,2547,-1555,-11131,-2189,-3613,-2144,3136,1368,3257,5162,267,-3597,-3686,-4364,-2389,2547,-12080,-2668,-14,243,412,4249,2666,-765,-6973,-5011,5215,-405,2860,1607,3488,6899,602,1594,2048,3605,-1329,304,415,-1058,1741,3271,999,-6394,-4178,-3385,4288,1244,4872,-9487,4879,-2484,-4334,-10810,820,-10496,5903,2807,4251,6891,6323,4161,-4390,1090,605,8303,-7463,3991,350,7687,682,8390,-4592,-7599,-2366,7223,-820,-5932,-374,6116,-5532,-8046,2346,-4223,7175,959,6209,15028,14492,403,-3306,-3576,-5673,-3639,-5261,-1905,-2757,-7792,5851,2417,-4829,-4928,3629,6317,1748,5686,4725,-5461,-291,-1277,4027,-3661,-4809,3427,-1227,2122,-57,-829,-135,-3269,-62,2446,7970,2648,-1621,3107,4441,2620,-5215,-4957,2516,2659,-4947,-4174,-6560,7636,6326,5576,2672,5761,5163,1869,2062,3881,2980,-46,-883,-6429,-10237,-825,-1386,-7133,-2150,-1441,1503,-5866,109,314,-2584,2842,-2016,358,-6075,7,12357,2053,-1083,3284,9323,-1095,1679,-840,3475,1014,-372,1530,-4697,3986,7827,2914,3051,-3557,1077,3699,3637,5241,-6704,-7539,3069,-324,4617,-201,-355,-224,1758,3753,-12011,-2576,6668,-1754,-715,3746,-2850,81,4982,4057,-5938,-5365,1915,2851,-7442,-6983,-11771,304,-1746,-7,1802,7403,-5443,14795,6568,-10071,0,-985,1873,-1781,-2562,-6095,22,-70,-3379,1774,-4808,-9761,-5093,-3936,724,-1603,4307,};

const int16_t weight5_6[10][256]= {
                                   {95,-12,31,52,42,-107,-138,36,20,-4,-10,94,125,52,-109,-17,-4,-93,-76,-47,-60,4,24,-86,-42,-2,-57,7,59,162,2,-32,-40,12,-17,-7,-67,59,10,-47,6,-63,-107,-82,-139,71,9,-68,-85,73,184,1,-15,-69,10,-105,-38,-54,-66,1,64,-43,12,-85,1,30,26,-22,-12,71,56,130,26,-41,37,20,-19,75,103,74,37,-50,57,36,-85,-73,-100,-58,-69,-8,-40,1,-104,-34,-13,103,-53,-64,69,81,24,-33,-21,-17,-71,-19,-29,33,97,42,-33,72,17,39,48,60,21,5,26,0,-28,-26,15,-42,9,97,8,42,-37,-41,71,55,-50,-44,49,-9,-24,-31,-45,-27,146,15,-67,-54,-60,-39,66,63,18,-13,92,-55,-11,41,20,-26,52,41,-49,-15,9,47,-90,30,-67,-66,19,23,-65,-46,-40,10,-68,-97,-63,34,68,-37,36,86,143,-116,-58,-35,-22,-55,-44,-44,-91,-42,60,66,35,-66,13,-28,-5,0,66,-40,-14,19,6,5,24,30,-10,108,5,26,-97,0,68,-8,-53,61,-45,57,14,50,11,-32,-14,8,29,49,-142,84,130,-66,-48,12,-52,74,1,-43,29,25,-94,-53,-21,-76,10,90,50,-52,-86,-49,44,31,-25,-49,-90,64,-45,-15,},
                                   {-29,-8,-8,-13,-29,21,-42,-3,40,-86,-149,4,39,-75,-18,118,-76,36,-41,-15,-4,-11,-80,103,77,-103,35,-35,-39,-31,-24,-16,39,12,39,-37,15,113,22,92,35,35,85,-11,-88,-26,5,18,72,6,10,163,50,59,28,5,-59,-99,-23,-51,-65,40,-16,-24,-28,-27,38,45,102,161,10,-9,36,106,-55,102,-1,104,-28,43,-53,-3,-37,24,-11,-96,-61,-78,-55,-71,112,-43,20,-62,-52,-77,72,67,30,-12,35,65,53,75,-53,42,0,47,-96,0,3,-100,-7,54,-21,-30,-10,-90,-13,25,44,-2,28,57,5,-52,-7,-69,133,50,56,101,44,65,46,30,-10,-39,41,-56,-25,-113,-59,31,-70,-49,-100,40,7,-104,-49,10,-32,1,30,24,-81,-92,41,43,-36,0,-64,0,46,20,-15,-113,69,81,40,-64,68,-13,78,45,64,-55,2,-12,-64,-39,-13,-12,-20,-37,36,-97,-74,24,52,-22,48,0,32,115,9,-26,28,41,-20,58,54,-10,-117,10,84,51,-26,111,124,-53,0,17,153,61,-21,21,-27,40,6,-45,-23,-26,-49,-63,98,-62,-117,-45,-7,49,32,-54,108,45,-53,-50,-115,-44,-51,39,-20,-18,-59,-61,19,75,72,-11,-52,106,0,-17,3,137,},
                                   {40,48,27,50,-79,-128,-69,-25,-17,-140,0,135,48,78,60,-91,191,117,20,52,24,15,48,103,143,-14,-140,10,17,4,73,90,-91,-52,10,-42,23,-4,-48,-134,-24,65,-24,71,-2,16,28,-73,-19,-113,94,26,4,54,64,-79,-71,-28,28,61,-101,40,102,43,-94,93,57,-71,-54,6,5,-4,-21,34,-178,-35,-1,-112,24,-24,70,-121,-46,60,-8,-60,-55,-61,-70,-7,80,104,37,-20,-37,20,-22,19,4,101,161,-55,3,8,-77,39,160,33,-1,-1,61,-30,-9,-143,-43,18,-65,13,28,-91,33,115,-13,-28,-38,-10,56,85,24,15,27,-15,82,-8,-102,-60,-74,-39,-92,51,-11,-56,-119,24,-73,36,-69,-99,-31,55,-17,-6,6,-54,140,33,7,89,132,70,-57,52,36,15,-36,36,12,8,48,29,-100,0,157,45,19,-21,94,42,-7,165,88,-73,-63,-49,19,-73,-23,58,82,-4,-46,45,8,-34,62,-83,156,-12,30,-53,17,39,135,116,48,-43,72,5,-91,10,-45,-90,-48,88,18,32,51,-22,-42,-50,-62,18,-63,45,4,-22,-98,-63,-150,30,-89,-61,200,19,-15,24,256,146,55,-15,17,-117,-55,-9,-31,-1,-64,-74,-88,-80,-16,4,57,20,29,31,},
                                   {-114,-81,-91,-39,-119,-46,96,-27,-44,85,141,34,-86,-13,-1,24,-7,73,-44,161,124,-19,-146,-15,-27,-30,-89,17,16,0,27,75,56,-51,3,37,-33,-37,-14,-3,-101,-56,-129,-34,-53,1,-30,-8,13,-15,-92,19,0,49,20,16,-24,1,169,56,-118,-54,35,29,79,-45,15,68,97,47,21,-50,-66,14,-63,-16,-71,72,-99,97,-119,50,12,-20,135,131,120,11,79,27,-153,-119,32,-59,158,28,5,74,148,-20,-98,-142,29,-30,67,114,-48,16,18,-25,-33,14,-30,23,96,-48,-83,-40,-13,-39,-96,-61,84,3,-124,3,45,-102,-77,-12,-1,-63,-104,-19,-31,-1,4,-13,-63,-75,-122,59,-66,-46,70,41,41,25,52,-21,-65,-59,-49,-12,33,-82,59,-8,-100,2,77,65,51,37,168,61,21,-63,-79,154,71,29,-31,45,5,63,-84,-49,57,30,11,51,47,-12,-36,-7,-40,-42,-34,-3,-2,-68,6,-4,23,-35,-49,90,-32,114,168,51,-61,71,-42,0,-2,-72,50,-16,181,96,-114,-55,16,-21,-72,-9,70,117,-36,-26,34,-66,-41,-38,17,-80,-4,-20,-69,-16,82,-6,118,-40,42,-3,7,-79,-6,48,99,-15,85,-14,-110,24,24,28,-39,-26,17,5,25,-27,},
                                   {-83,-89,-41,17,-43,6,38,93,-15,-37,-19,-50,27,-50,-1,-20,39,-160,107,-49,-48,66,26,88,-17,84,-63,100,-24,71,-52,-49,-53,-65,10,-72,-38,-89,-122,-131,55,19,105,165,76,35,51,-25,91,58,-70,25,-8,-6,-40,-39,45,118,8,-9,71,-5,32,24,22,68,-39,30,59,-120,-94,-35,114,107,197,17,22,-16,-13,-23,-54,-39,-36,16,-74,-63,78,103,-101,-2,129,86,-1,9,-90,-17,-55,-51,-84,-43,-58,48,114,54,88,-41,102,-34,-130,9,-47,-64,-13,-2,-8,4,-34,52,-15,66,52,115,-69,15,128,-18,-66,30,-21,6,-55,-35,5,-46,2,15,43,105,86,40,22,-72,76,-43,-24,-95,-78,-29,-76,14,-87,76,16,87,-26,27,1,-20,18,54,-16,40,40,32,-42,-106,-60,-89,35,-79,-90,42,13,43,5,-12,-101,-24,18,-156,-80,-15,-16,-76,-39,43,157,95,39,60,-61,-12,-32,5,-57,-37,5,26,-64,18,-23,-22,28,9,-37,71,-21,50,8,87,-24,-16,-9,-27,-49,17,101,33,-68,70,-32,-32,-81,117,14,61,18,141,-2,-39,4,129,38,-86,-107,15,-1,-106,-15,-25,-11,110,0,-59,-39,-61,-10,9,-5,93,-18,157,30,-10,-36,-72,},
                                   {30,50,-43,41,189,83,51,2,91,75,62,0,27,37,-27,-71,-64,-29,13,-22,-103,-70,-39,27,-87,2,95,75,-11,28,-62,0,-3,101,74,56,-16,-13,247,63,29,44,-9,21,39,-27,-82,-51,34,-72,0,3,-27,3,-50,-13,36,-14,-21,-35,122,-26,-86,104,47,22,98,8,12,22,95,78,-117,-182,-45,80,-88,-34,6,-36,-88,62,-22,-6,-57,4,14,145,-15,-29,-60,55,-38,12,1,-61,103,138,-65,-57,-87,-29,-62,-77,-43,-31,15,-113,41,17,-6,2,72,-15,55,-54,41,38,7,-15,-133,-89,-108,-48,-30,16,-36,-53,-35,-67,-62,8,-22,-55,86,-107,-20,-21,19,116,-10,5,106,79,46,80,71,-7,-9,15,-32,38,-16,-107,-140,16,-30,-149,-113,30,-58,-78,-120,-21,68,62,18,30,49,-70,-36,60,87,52,65,-72,-18,74,103,-75,-99,65,0,107,97,30,11,-65,98,22,17,10,65,-49,6,16,26,17,30,155,42,25,-29,-55,76,-117,-25,-56,65,-65,-12,-72,-18,-58,-24,-28,86,9,-9,-102,5,93,39,-147,-17,43,16,10,-113,-24,-69,-45,-89,-35,82,-79,-63,-182,-56,53,96,55,-59,17,64,106,126,-30,69,39,27,34,-25,-43,-45,71,},
                                   {-40,-81,-98,51,-10,13,-40,-74,17,-5,-68,-14,32,120,74,85,-2,82,59,53,-29,-27,67,-34,-61,-83,9,-66,-80,-103,11,-92,45,41,-75,30,39,22,63,13,0,-19,34,-11,-30,-9,-8,-29,-87,5,148,63,-8,-71,-49,-21,-5,-45,-193,-97,-3,-17,-121,-34,35,18,121,57,-18,-53,-56,1,-74,-104,-48,28,-132,-88,90,43,18,64,96,-48,-47,-4,-46,-34,117,106,-52,33,12,76,-51,-16,-13,-26,27,-53,30,130,199,32,133,-86,-41,-43,24,-150,-89,30,15,-22,-18,25,98,4,80,65,-19,-30,28,52,-98,58,-127,28,-43,12,81,30,-27,-4,-28,-10,-91,-7,-40,-33,-50,-11,-32,16,-41,81,130,93,-89,-23,99,27,-18,15,10,-47,-31,26,16,-30,48,-140,-36,56,-89,-137,-40,44,66,-54,4,41,-2,-38,5,-29,-134,9,-83,-2,29,54,0,-42,27,-17,-52,-1,113,19,0,-46,-37,16,-8,35,-61,-13,0,-81,-71,-113,-58,-66,46,4,-143,-16,65,0,-24,33,82,41,-109,9,-65,-27,87,-11,-7,-19,-120,-62,48,87,2,-64,75,122,35,-31,-90,52,66,72,-112,-106,-18,-3,6,-37,-49,-7,-47,54,138,93,115,40,53,-12,-71,-17,3,-5,},
                                   {80,80,161,-37,13,-147,-41,17,-138,-54,-14,-53,-121,-3,-17,-29,41,76,-46,-65,5,62,40,57,-4,65,66,89,13,58,49,-94,18,55,120,96,92,-2,-99,-89,114,67,-44,91,88,-16,-17,132,105,1,-62,4,19,11,44,30,104,146,134,93,50,32,22,-88,-130,-33,19,-50,-102,-14,-45,32,48,-26,105,-75,83,116,-68,-66,-114,-38,-78,-51,17,44,92,-103,-63,7,-7,-91,15,36,-11,64,-46,-92,-153,18,-42,-132,18,-30,38,123,22,0,-68,-1,-7,1,107,79,-54,-15,-6,-60,-148,-55,34,7,-49,90,-13,4,53,141,14,10,62,-46,34,2,72,13,0,-23,-17,85,96,14,62,64,48,-72,-97,-88,48,-78,47,38,-114,10,-11,-5,-65,-1,40,-24,-8,23,-8,-17,-32,45,-76,-67,-59,-7,-16,86,-82,46,20,-25,110,13,20,-5,68,88,-22,84,106,26,25,51,-39,-42,-5,78,61,-82,-20,-16,18,-97,64,29,34,-59,40,-99,-9,97,25,-27,-73,32,-69,-84,-40,15,58,4,66,2,-99,-2,78,0,-7,49,-66,-30,9,1,-30,-101,33,28,-15,-2,33,121,-30,57,-91,111,-14,118,44,-12,-72,-73,-6,-39,-26,-52,-5,-90,-55,43,35,-15,},
                                   {17,39,-50,-95,5,139,108,-45,77,63,-68,-1,15,50,67,-21,-40,121,-49,-93,-16,49,91,-30,-54,-6,-34,-125,-13,-11,79,-64,-4,-66,14,-61,-44,-144,-74,14,0,-57,112,36,-79,-46,-26,-21,-18,-14,0,-110,-83,54,-70,45,57,0,60,-68,-23,35,-43,-5,48,-105,-166,-10,-76,29,-26,34,48,-37,-60,61,17,-31,95,76,36,51,6,-51,-60,-31,59,50,78,120,40,57,48,80,-78,57,34,71,3,31,-14,-45,-168,-91,-5,-12,33,-50,117,81,93,88,-26,-20,69,42,42,168,-123,-69,9,-69,30,106,-26,23,-23,16,-22,-44,-36,-87,5,-22,-152,-48,13,62,31,-38,-110,139,-12,-21,144,34,-5,14,72,-33,54,-13,82,-65,33,66,23,148,116,12,69,26,48,55,15,69,-23,-11,-21,-131,98,56,50,-156,14,57,49,-12,39,59,-13,2,-24,-51,-21,118,7,68,-2,18,-8,-18,-119,33,6,18,-103,-41,-42,-48,-114,104,-132,77,20,-50,-103,14,-42,-143,19,33,76,0,-17,13,-17,-21,-24,9,21,-71,26,-21,73,84,39,-153,-5,103,52,-82,-78,61,-155,-27,-64,109,14,-64,-109,-61,-64,-37,36,42,26,-2,-27,-16,-39,-72,91,-2,11,-10,},
                                   {-15,-96,94,68,97,0,161,41,89,136,73,11,-79,-163,-140,12,-98,-192,64,38,-71,-36,-1,-57,147,32,87,104,24,-65,-112,76,-71,65,-84,-19,-11,-42,-6,99,-54,-119,47,-172,11,-18,177,86,125,36,-42,-34,9,-72,-54,53,-51,-4,-22,15,-79,35,-32,29,-25,-88,-28,-15,27,-4,-11,-44,1,4,112,-61,117,-36,24,-68,121,35,-2,2,130,61,-114,-54,6,14,21,-49,-128,-96,84,-25,48,35,25,-67,-35,73,-156,25,33,-110,-106,116,-39,-5,20,56,-123,114,99,-28,-53,20,19,-57,35,28,-1,-88,-34,0,-8,-1,-21,8,-130,80,64,24,-50,13,27,77,7,15,12,118,79,-104,38,6,-29,-41,21,-14,-129,-36,147,77,-99,-38,71,-20,-60,-116,-104,-30,34,-96,-9,20,46,14,-90,58,-44,-137,-53,-31,60,13,-13,91,-84,16,-62,52,-14,20,19,-81,44,-58,27,83,82,-106,45,42,-33,-30,0,-46,-58,-111,14,84,53,69,19,-58,43,16,35,-97,32,74,-22,9,-61,-55,-33,50,-29,-31,8,25,-36,100,76,0,-32,-1,23,81,-7,-31,57,53,-76,-53,-50,-70,39,24,95,61,75,-58,44,3,-71,-83,-75,124,29,5,-82,-2,70,-45,},
                               };





#pragma PERSISTENT(n_bias0_1)
const int16_t n_bias0_1[LAYER1]= {313,819,245,-192,15,215};

#pragma PERSISTENT(n_bias2_3)
const int16_t n_bias2_3[LAYER3]={-181,-2122,315,2818,1882,-14,-708,-1428,-918,-2336,-906,-1400,1090,1685,2146,2214};

const int16_t n_bias4_5[256]= {110,111,112,115,121,119,105,105,111,110,110,111,107,106,111,109,115,121,108,111,110,108,111,107,110,113,114,104,104,121,107,101,109,110,114,107,112,110,108,109,108,109,111,111,116,111,103,107,112,113,125,109,110,111,112,108,118,106,111,112,110,107,103,111,112,117,106,110,108,115,105,113,107,114,103,105,110,103,115,109,110,113,106,109,108,117,114,111,104,107,115,113,108,106,109,117,114,108,106,124,113,112,124,108,108,121,113,112,114,111,119,114,117,105,107,105,110,115,101,108,118,108,106,112,117,102,104,112,112,110,110,106,103,105,105,115,105,101,115,108,115,103,110,119,113,109,108,105,110,112,119,108,105,106,110,106,109,114,124,105,106,105,107,122,108,113,106,124,121,102,107,128,113,103,104,107,115,111,110,112,106,111,109,114,110,114,106,112,113,106,112,115,109,108,111,108,107,99,112,111,103,120,115,111,108,112,119,106,112,108,116,112,114,113,113,108,118,107,102,102,108,110,106,110,114,107,113,115,124,102,104,109,111,109,118,114,120,118,112,114,107,109,108,106,116,114,122,115,111,106,107,114,123,110,109,110};

#pragma PERSISTENT(n_bias5_6)
const int16_t n_bias5_6[OUTPUT]= {-117,-172,116,-223,74,256,-91,113,-144,-46};

#pragma PERSISTENT(f_input)
int16_t f_input[INPUT][28][28]= {{
                                  {0.0,0.0,0.0,0.0,0.0,0.0,0.0,0.0,0.0,0.0,0.0,0.0,0.0,0.0,0.0,0.0,0.0,0.0,0.0,0.0,0.0,0.0,0.0,0.0,0.0,0.0,0.0,0.0,},
                                  {0.0,0.0,0.0,0.0,0.0,0.0,0.0,0.0,0.0,0.0,0.0,0.0,0.0,0.0,0.0,0.0,0.0,0.0,0.0,0.0,0.0,0.0,0.0,0.0,0.0,0.0,0.0,0.0,},
                                  {0.0,0.0,0.0,0.0,0.0,0.0,0.0,0.0,0.0,0.0,0.0,0.0,0.0,0.0,0.0,0.0,0.0,0.0,0.0,0.0,0.0,0.0,0.0,0.0,0.0,0.0,0.0,0.0,},
                                  {0.0,0.0,0.0,0.0,0.0,0.0,0.0,0.0,0.0,0.0,0.0,0.0,0.0,0.0,0.0,0.0,0.0,0.0,0.0,0.0,0.0,0.0,0.0,0.0,0.0,0.0,0.0,0.0,},
                                  {0.0,0.0,0.0,0.0,0.0,0.0,0.0,0.0,0.0,0.0,0.0,0.0,11.0,150.0,253.0,202.0,31.0,0.0,0.0,0.0,0.0,0.0,0.0,0.0,0.0,0.0,0.0,0.0,},
                                  {0.0,0.0,0.0,0.0,0.0,0.0,0.0,0.0,0.0,0.0,0.0,0.0,37.0,251.0,251.0,253.0,107.0,0.0,0.0,0.0,0.0,0.0,0.0,0.0,0.0,0.0,0.0,0.0,},
                                  {0.0,0.0,0.0,0.0,0.0,0.0,0.0,0.0,0.0,0.0,0.0,21.0,197.0,251.0,251.0,253.0,107.0,0.0,0.0,0.0,0.0,0.0,0.0,0.0,0.0,0.0,0.0,0.0,},
                                  {0.0,0.0,0.0,0.0,0.0,0.0,0.0,0.0,0.0,0.0,110.0,190.0,251.0,251.0,251.0,253.0,169.0,109.0,62.0,0.0,0.0,0.0,0.0,0.0,0.0,0.0,0.0,0.0,},
                                  {0.0,0.0,0.0,0.0,0.0,0.0,0.0,0.0,0.0,0.0,253.0,251.0,251.0,251.0,251.0,253.0,251.0,251.0,220.0,51.0,0.0,0.0,0.0,0.0,0.0,0.0,0.0,0.0,},
                                  {0.0,0.0,0.0,0.0,0.0,0.0,0.0,0.0,0.0,182.0,255.0,253.0,253.0,253.0,253.0,234.0,222.0,253.0,253.0,253.0,0.0,0.0,0.0,0.0,0.0,0.0,0.0,0.0,},
                                  {0.0,0.0,0.0,0.0,0.0,0.0,0.0,0.0,63.0,221.0,253.0,251.0,251.0,251.0,147.0,77.0,62.0,128.0,251.0,251.0,105.0,0.0,0.0,0.0,0.0,0.0,0.0,0.0,},
                                  {0.0,0.0,0.0,0.0,0.0,0.0,0.0,32.0,231.0,251.0,253.0,251.0,220.0,137.0,10.0,0.0,0.0,31.0,230.0,251.0,243.0,113.0,5.0,0.0,0.0,0.0,0.0,0.0,},
                                  {0.0,0.0,0.0,0.0,0.0,0.0,0.0,37.0,251.0,251.0,253.0,188.0,20.0,0.0,0.0,0.0,0.0,0.0,109.0,251.0,253.0,251.0,35.0,0.0,0.0,0.0,0.0,0.0,},
                                  {0.0,0.0,0.0,0.0,0.0,0.0,0.0,37.0,251.0,251.0,201.0,30.0,0.0,0.0,0.0,0.0,0.0,0.0,31.0,200.0,253.0,251.0,35.0,0.0,0.0,0.0,0.0,0.0,},
                                  {0.0,0.0,0.0,0.0,0.0,0.0,0.0,37.0,253.0,253.0,0.0,0.0,0.0,0.0,0.0,0.0,0.0,0.0,32.0,202.0,255.0,253.0,164.0,0.0,0.0,0.0,0.0,0.0,},
                                  {0.0,0.0,0.0,0.0,0.0,0.0,0.0,140.0,251.0,251.0,0.0,0.0,0.0,0.0,0.0,0.0,0.0,0.0,109.0,251.0,253.0,251.0,35.0,0.0,0.0,0.0,0.0,0.0,},
                                  {0.0,0.0,0.0,0.0,0.0,0.0,0.0,217.0,251.0,251.0,0.0,0.0,0.0,0.0,0.0,0.0,21.0,63.0,231.0,251.0,253.0,230.0,30.0,0.0,0.0,0.0,0.0,0.0,},
                                  {0.0,0.0,0.0,0.0,0.0,0.0,0.0,217.0,251.0,251.0,0.0,0.0,0.0,0.0,0.0,0.0,144.0,251.0,251.0,251.0,221.0,61.0,0.0,0.0,0.0,0.0,0.0,0.0,},
                                  {0.0,0.0,0.0,0.0,0.0,0.0,0.0,217.0,251.0,251.0,0.0,0.0,0.0,0.0,0.0,182.0,221.0,251.0,251.0,251.0,180.0,0.0,0.0,0.0,0.0,0.0,0.0,0.0,},
                                  {0.0,0.0,0.0,0.0,0.0,0.0,0.0,218.0,253.0,253.0,73.0,73.0,228.0,253.0,253.0,255.0,253.0,253.0,253.0,253.0,0.0,0.0,0.0,0.0,0.0,0.0,0.0,0.0,},
                                  {0.0,0.0,0.0,0.0,0.0,0.0,0.0,113.0,251.0,251.0,253.0,251.0,251.0,251.0,251.0,253.0,251.0,251.0,251.0,147.0,0.0,0.0,0.0,0.0,0.0,0.0,0.0,0.0,},
                                  {0.0,0.0,0.0,0.0,0.0,0.0,0.0,31.0,230.0,251.0,253.0,251.0,251.0,251.0,251.0,253.0,230.0,189.0,35.0,10.0,0.0,0.0,0.0,0.0,0.0,0.0,0.0,0.0,},
                                  {0.0,0.0,0.0,0.0,0.0,0.0,0.0,0.0,62.0,142.0,253.0,251.0,251.0,251.0,251.0,253.0,107.0,0.0,0.0,0.0,0.0,0.0,0.0,0.0,0.0,0.0,0.0,0.0,},
                                  {0.0,0.0,0.0,0.0,0.0,0.0,0.0,0.0,0.0,0.0,72.0,174.0,251.0,173.0,71.0,72.0,30.0,0.0,0.0,0.0,0.0,0.0,0.0,0.0,0.0,0.0,0.0,0.0,},
                                  {0.0,0.0,0.0,0.0,0.0,0.0,0.0,0.0,0.0,0.0,0.0,0.0,0.0,0.0,0.0,0.0,0.0,0.0,0.0,0.0,0.0,0.0,0.0,0.0,0.0,0.0,0.0,0.0,},
                                  {0.0,0.0,0.0,0.0,0.0,0.0,0.0,0.0,0.0,0.0,0.0,0.0,0.0,0.0,0.0,0.0,0.0,0.0,0.0,0.0,0.0,0.0,0.0,0.0,0.0,0.0,0.0,0.0,},
                                  {0.0,0.0,0.0,0.0,0.0,0.0,0.0,0.0,0.0,0.0,0.0,0.0,0.0,0.0,0.0,0.0,0.0,0.0,0.0,0.0,0.0,0.0,0.0,0.0,0.0,0.0,0.0,0.0,},
                                  {0.0,0.0,0.0,0.0,0.0,0.0,0.0,0.0,0.0,0.0,0.0,0.0,0.0,0.0,0.0,0.0,0.0,0.0,0.0,0.0,0.0,0.0,0.0,0.0,0.0,0.0,0.0,0.0,},
                              }};

#pragma PERSISTENT(f_output)
int16_t f_output[OUTPUT]={0};

#pragma PERSISTENT(f_layer1)
int16_t f_layer1[LAYER1][24][24]={0};
#pragma PERSISTENT(f_layer2)
int16_t f_layer2[LAYER2][12][12]={0};
#pragma PERSISTENT(f_layer3)
int16_t f_layer3[LAYER3][8][8]={0};
#pragma PERSISTENT(f_layer4)
int16_t f_layer4[LAYER4][4][4]={0};
//#pragma PERSISTENT(f_layer5)
//float f_layer5[10]={0};

#pragma PERSISTENT(f_layerLast)
int16_t f_layerLast[256] = {0};
//#pragma PERSISTENT(f_layerTempLast)
//int16_t f_layerTempLast[256] = {0};

